digraph Tree {
node [shape=box, style="filled, rounded", color="black", fontname=helvetica] ;
edge [fontname=helvetica] ;
0 [label=<times_equals &le; 0.0011<br/>gini = 0.2351<br/>samples = 764<br/>value = [1035, 163]<br/>class = not C>, fillcolor="#e58139d7"] ;
1 [label=<left_shift &le; 0.0042<br/>gini = 0.0108<br/>samples = 589<br/>value = [918, 5]<br/>class = not C>, fillcolor="#e58139fe"] ;
0 -> 1 [labeldistance=2.5, labelangle=45, headlabel="True"] ;
2 [label=<gini = 0.0<br/>samples = 566<br/>value = [884, 0]<br/>class = not C>, fillcolor="#e58139ff"] ;
1 -> 2 ;
3 [label=<comma &le; 0.0071<br/>gini = 0.2235<br/>samples = 23<br/>value = [34, 5]<br/>class = not C>, fillcolor="#e58139da"] ;
1 -> 3 ;
4 [label=<gini = 0.0<br/>samples = 19<br/>value = [34, 0]<br/>class = not C>, fillcolor="#e58139ff"] ;
3 -> 4 ;
5 [label=<gini = 0.0<br/>samples = 4<br/>value = [0, 5]<br/>class = C>, fillcolor="#399de5ff"] ;
3 -> 5 ;
6 [label=<struct &le; 0.0204<br/>gini = 0.4889<br/>samples = 175<br/>value = [117, 158]<br/>class = C>, fillcolor="#399de542"] ;
0 -> 6 [labeldistance=2.5, labelangle=-45, headlabel="False"] ;
7 [label=<equals &le; 0.0359<br/>gini = 0.0973<br/>samples = 99<br/>value = [8, 148]<br/>class = C>, fillcolor="#399de5f1"] ;
6 -> 7 ;
8 [label=<right_shift &le; 0.0014<br/>gini = 0.0512<br/>samples = 96<br/>value = [4, 148]<br/>class = C>, fillcolor="#399de5f8"] ;
7 -> 8 ;
9 [label=<short &le; 0.0001<br/>gini = 0.0133<br/>samples = 94<br/>value = [1, 148]<br/>class = C>, fillcolor="#399de5fd"] ;
8 -> 9 ;
10 [label=<gini = 0.0<br/>samples = 90<br/>value = [0, 142]<br/>class = C>, fillcolor="#399de5ff"] ;
9 -> 10 ;
11 [label=<struct &le; 0.007<br/>gini = 0.2449<br/>samples = 4<br/>value = [1, 6]<br/>class = C>, fillcolor="#399de5d4"] ;
9 -> 11 ;
12 [label=<gini = 0.0<br/>samples = 3<br/>value = [0, 6]<br/>class = C>, fillcolor="#399de5ff"] ;
11 -> 12 ;
13 [label=<gini = 0.0<br/>samples = 1<br/>value = [1, 0]<br/>class = not C>, fillcolor="#e58139ff"] ;
11 -> 13 ;
14 [label=<gini = 0.0<br/>samples = 2<br/>value = [3, 0]<br/>class = not C>, fillcolor="#e58139ff"] ;
8 -> 14 ;
15 [label=<gini = 0.0<br/>samples = 3<br/>value = [4, 0]<br/>class = not C>, fillcolor="#e58139ff"] ;
7 -> 15 ;
16 [label=<while &le; 0.0001<br/>gini = 0.1539<br/>samples = 76<br/>value = [109, 10]<br/>class = not C>, fillcolor="#e58139e8"] ;
6 -> 16 ;
17 [label=<minus &le; 0.0274<br/>gini = 0.2285<br/>samples = 51<br/>value = [66, 10]<br/>class = not C>, fillcolor="#e58139d8"] ;
16 -> 17 ;
18 [label=<gini = 0.0<br/>samples = 44<br/>value = [65, 0]<br/>class = not C>, fillcolor="#e58139ff"] ;
17 -> 18 ;
19 [label=<greater_than_or_equal &le; 0.0018<br/>gini = 0.1653<br/>samples = 7<br/>value = [1, 10]<br/>class = C>, fillcolor="#399de5e6"] ;
17 -> 19 ;
20 [label=<gini = 0.0<br/>samples = 6<br/>value = [0, 10]<br/>class = C>, fillcolor="#399de5ff"] ;
19 -> 20 ;
21 [label=<gini = 0.0<br/>samples = 1<br/>value = [1, 0]<br/>class = not C>, fillcolor="#e58139ff"] ;
19 -> 21 ;
22 [label=<gini = 0.0<br/>samples = 25<br/>value = [43, 0]<br/>class = not C>, fillcolor="#e58139ff"] ;
16 -> 22 ;
}